<?xml version="1.0"?>
<opencv_storage>
<cascade>
  <stageType>BOOST</stageType>
  <featureType>LBP</featureType>
  <height>32</height>
  <width>32</width>
  <stageParams>
    <boostType>GAB</boostType>
    <minHitRate>9.9500000476837158e-01</minHitRate>
    <maxFalseAlarm>2.0000000298023224e-01</maxFalseAlarm>
    <weightTrimRate>9.4999999999999996e-01</weightTrimRate>
    <maxDepth>8</maxDepth>
    <maxWeakCount>128</maxWeakCount></stageParams>
  <featureParams>
    <maxCatCount>256</maxCatCount>
    <featSize>1</featSize></featureParams>
  <stageNum>10</stageNum>
  <stages>
    <!-- stage 0 -->
    <_>
      <maxWeakCount>1</maxWeakCount>
      <stageThreshold>1.</stageThreshold>
      <weakClassifiers>
        <_>
          <internalNodes>
            1 2 109 -829949630 -1501239926 -1056899058 1152622738
            1216546400 1208156297 1641349712 -993793145 3 4 96
            -747644969 -538317605 -2147105653 -952040565 -1291192657
            -131997688 -384593526 -35652881 5 6 43 -2064527132
            -803913270 16896264 -1061945274 679534658 536870912
            1225263115 1717568002 7 8 105 -137364481 -473312733 573449
            -787226623 -805060341 -2147479549 -234626359 -271584817 0 -1
            35 302170376 1073741824 131072 -2013200384 32768 0 16779272
            33282 -2 -3 21 -800992549 -788492224 -1878945789 -780140541
            -1342119798 -2004353024 4107 -206880245 9 10 29 -1073680384
            458770 0 -1811789816 1073834024 -2130706432 229633
            1355219040 -4 -5 17 -603982849 -77893489 1157738541
            -576982975 -616187217 -7208829 -100541697 -2360625 -6 -7 0
            268435456 0 0 0 128 128 0 0 -8 -9 2 -784215894 1090846736 2
            98818 -2130567166 0 302006403 -1022114805 -10 11 70
            1090568320 100761600 16 1207959553 16777216 8404992
            134221825 553910304 -11 12 91 1073873536 37748736 2 64 65536
            0 -1073739776 131136 -12 -13 25 524480 0 2 0 0 131072 0
            16777216</internalNodes>
          <leafValues>
            -1. 1. -1. 1. -1. 1. -1. 1. -1. 1. -1. -1. -1. 1.</leafValues></_></weakClassifiers></_>
    <!-- stage 1 -->
    <_>
      <maxWeakCount>1</maxWeakCount>
      <stageThreshold>1.</stageThreshold>
      <weakClassifiers>
        <_>
          <internalNodes>
            1 2 89 811102717 968933465 16860127 1024725595 -1467961107
            -1198972800 402996152 136972856 3 4 65 -644836897 -717024943
            -1853684321 -1080458857 310430911 -1182170485 -1593144949
            -6709213 5 6 20 -532654074 -234815152 8963088 1573913605
            -2004589416 958464416 -503316309 65568 7 8 101 -83626497
            -545134181 -720252771 -539656171 -209591365 -1987460983
            -83834465 -2106961 0 -1 27 16990212 269582337 65536
            268500992 128 524288 16898 -2147483646 -2 -3 3 -674770745
            -519503744 3 1359249408 16810114 65536 1073848330 -108560213
            -4 9 66 -1340817176 68157441 1157714114 -2080358399 8193
            92307592 1075841056 34281475 -5 -6 13 -71042049 -581345131
            -2130688821 -547934053 -718939173 -662470518 -1818404465
            -17473 -7 -8 0 0 0 0 1073741824 0 0 0 0 -9 10 97 98432
            1049090 65536 -2113896384 65538 65544 196608 68247681 -10 11
            82 536887296 -805306368 0 1073741824 -2147450876 0 32896
            33554432 -11 12 69 0 33554432 0 327680 8 0 0 536870976 -12
            -13 5 32768 0 0 0 0 0 0 0</internalNodes>
          <leafValues>
            -1. 1. -1. 1. -1. -1. 1. -1. 1. -1. -1. -1. -1. 1.</leafValues></_></weakClassifiers></_>
    <!-- stage 2 -->
    <_>
      <maxWeakCount>1</maxWeakCount>
      <stageThreshold>1.</stageThreshold>
      <weakClassifiers>
        <_>
          <internalNodes>
            1 2 63 671120145 1039519897 276911095 -1383485156
            -1432323077 -70547053 -1617909507 -2001730731 3 4 71
            1895897559 -1077936075 285315423 -11468719 -1736408838
            -105346934 -930566661 -7296865 5 6 74 1376440358 -2004614637
            67179908 134484234 1361715205 33587200 -1073188863 894181905
            7 8 14 1607958015 -11300399 -437707267 -614477628 -474356773
            -1148722242 -125702181 -4165 0 -1 1 8192 0 1 0 32896 0 0
            -2147483583 -2 -3 10 -779886513 -1073405952 -2130706431
            889290839 -2128510837 -2013233152 -2147483005 -240654509 -4
            9 61 -498480890 339968016 134480389 -1878949888 8945826
            -1476394752 -2147450846 71319552 10 -5 16 -78118913
            -203071401 -1047948833 -7365645 -665269313 -1198800765
            -1409295909 -69219601 -6 -7 1 33558528 -2130706432
            1207959680 8683520 0 0 0 -2147483648 -8 11 48 262176
            -1744828287 268435456 545259777 146800643 32768 69633
            1140989956 -9 -10 3 -136314881 -680410421 -805007293
            -80230969 -933508405 -653753873 -452207877 -2661 -11 12 87
            209715200 0 67108864 16385 32896 8912896 33554432 58372 -12
            13 23 1073774592 147456 0 4 128 0 -2147483616 0 -13 -14 19 0
            0 0 65536 0 0 0 2048</internalNodes>
          <leafValues>
            -1. 1. -1. 1. -1. 1. -1. 1. -1. -1. 1. -1. -1. -1. 1.</leafValues></_></weakClassifiers></_>
    <!-- stage 3 -->
    <_>
      <maxWeakCount>1</maxWeakCount>
      <stageThreshold>1.</stageThreshold>
      <weakClassifiers>
        <_>
          <internalNodes>
            1 2 93 -926137771 -39951017 1594433014 -45448931 -123837697
            -2391601 -355979266 -1460632711 3 4 56 -678168581 -900863793
            126206103 -125599361 -74493114 -222068385 -1051197554
            -272110705 5 6 102 402887500 1620148512 -2130673020
            -2138405870 1094748163 1392558474 -884860400 1081197345 7 8
            68 -180095009 -248777701 84246815 -582248313 -511448577
            -118724025 -1026971397 -7343153 0 9 36 406901896 272761089
            49682 -2113863680 1350696961 2048 65537 -805134334 -1 -2 3
            -796674741 1074135042 65664 -1056235512 -1073667559 8832
            -1073708889 -1029977873 -3 10 26 80047756 1119880204 266
            4096 8388672 270565678 1610615305 9437187 -4 -5 28 -69208065
            -710938293 -1034895277 -62405941 -804527665 -1995931381
            -728768117 -2362405 -6 -7 0 32 0 0 0 -2147483648 0 0 32768
            -8 -9 5 0 16384 0 0 64 -2147483648 0 0 -10 11 51 512
            -1073479680 0 -1073741812 1075904512 536870912 69239808
            1346635778 -11 12 72 81952 1048592 4096 0 8 2 66 4608 -12 13
            39 8192 131072 0 0 2097216 0 0 536870912 -13 -14 9 0 0 0 0 0
            0 0 64</internalNodes>
          <leafValues>
            -1. -1. 1. -1. -1. 1. -1. 1. -1. 1. -1. -1. -1. -1. 1.</leafValues></_></weakClassifiers></_>
    <!-- stage 4 -->
    <_>
      <maxWeakCount>1</maxWeakCount>
      <stageThreshold>1.</stageThreshold>
      <weakClassifiers>
        <_>
          <internalNodes>
            1 2 80 486702589 2136410179 -1291330785 521411295 -224132427
            -1148705143 446261501 -1353840272 3 4 64 -1849508619
            -1078885951 -2129575465 -40435456 889206267 -1162313512
            -1920984897 -1968529995 5 6 38 -2125629078 16859264 25380114
            550518785 -1996414960 1073762307 -2147333880 429019720 7 8
            53 -740827169 -772700777 -663711333 -576773217 -243140433
            -1743867519 -306713937 -68166913 0 9 33 1209095235
            1342243200 65793 -1878982528 -2147475327 -1073608576
            -2147352040 636355212 -1 -2 2 -1055403081 1095303171 4352
            -1040055806 -2147483630 -1577058304 -2146827221 -343680885
            -3 10 32 167821572 1375830272 16850944 1249904653 1108385795
            302120960 524312 352976901 11 -4 79 -80086529 -103168953
            -768870129 -686299893 -451609877 -172609493 -1089612369
            -71307313 -5 -6 0 16 0 0 0 0 0 0 0 -7 -8 8 82176 0 128 0 0 0
            2 69634 -9 12 94 134219792 -2130706301 32768 0 655752 133136
            34091272 520 -10 -11 34 -45091841 -640194209 1761677467
            -182499237 -477376593 -75314993 -1315710325 -69207057 13 14
            100 8256 8192 16 40962 -2147483648 0 36 553648128 -12 -13 2
            50331651 285212672 0 285212672 0 0 0 -1073709056 -14 -15 46
            16384 0 0 0 -2147483648 0 524288 268435456</internalNodes>
          <leafValues>
            -1. -1. 1. -1. 1. -1. 1. -1. 1. -1. -1. 1. -1. 1. -1. 1.</leafValues></_></weakClassifiers></_>
    <!-- stage 5 -->
    <_>
      <maxWeakCount>1</maxWeakCount>
      <stageThreshold>1.</stageThreshold>
      <weakClassifiers>
        <_>
          <internalNodes>
            1 2 81 552744053 -1076099783 -1929035489 -44198693
            -628872451 -1087661895 1795693545 -1095235212 3 4 55
            -556927121 -645445419 -1962616419 -695265649 -624689277
            -873799485 -120593553 -67638431 0 5 41 9601284 -713031674
            268534166 -211812339 134316170 -671006575 -1450704498
            1141024768 6 -1 30 -1090272769 -115797991 419486173 -7267819
            -2004776517 -1080328054 -911549713 -74807141 7 8 54
            -1988079526 285212936 1073741842 402915392 124197 536871040
            41996448 -1333555062 -2 9 78 -1589633008 -2146353015
            1358955522 1083457536 268435719 -2147483584 -1879040000
            549591168 -3 -4 13 -35792897 -2122245 -267791937 -146421305
            -371610177 -203847267 -275532037 -65 -5 -6 1 -268320733
            1342406667 -2130575231 -1844379647 270893186 0 -536313726
            -1069473639 -7 -8 11 0 8 0 16777216 4224 0 65664 134742016
            -9 10 44 268439616 1073741826 1048704 1207959552 8192 524296
            58722309 67192963 11 12 57 -49016 650117119 -50 -453054978
            2147448695 1962934271 1981284418 16744179 -10 -11 0 65600
            268963840 0 0 38912 -2147483648 136 -2147483646 -12 -13 13 0
            0 0 268435456 32 524288 128 0</internalNodes>
          <leafValues>
            -1. 1. -1. -1. 1. -1. 1. -1. 1. -1. -1. 1. -1. 1.</leafValues></_></weakClassifiers></_>
    <!-- stage 6 -->
    <_>
      <maxWeakCount>1</maxWeakCount>
      <stageThreshold>1.</stageThreshold>
      <weakClassifiers>
        <_>
          <internalNodes>
            1 2 107 -270537745 -1428254840 -1827531772 -984878328
            -1413123616 558452933 847500033 -503317145 3 4 67 -2133005
            -886185555 -1861124649 483898331 -80758301 -103620469
            -106431616 -291644545 5 6 31 -1239252798 1376829505
            537182532 -369032952 1476462084 68298880 -745995775
            277960768 7 8 99 -78120993 -654064345 -1325150129 -782794289
            -776778373 -652279142 -215498273 -1049633 0 9 90 1342390607
            -1073577984 293601296 -2063515647 -2146926558 201478144
            536938624 -1039530998 -1 -2 9 -167259745 -367992576 8454208
            -737837055 37847055 -2138947550 1074249729 -208435070 -3 10
            42 67796994 -2138554303 1073758475 -2109722624 1207976185
            -2147483648 12612232 17408 -4 -5 22 2136472575 -212878633
            -2021228373 -102764065 -36710465 -1188396661 -888546577
            -67108949 -6 -7 1 16385 17825792 0 0 262145 0 0 1082163200
            -8 -9 15 32768 536870912 16385 1090551808 16387 0 1 4194944
            -10 11 52 8194 -2079260606 66 1073742082 589825 1073741824
            134250513 21110784 -11 12 60 0 65537 20 268435456 0
            134217730 2049 16 -12 -13 49 -2147483648 0 256 0 0 0 0 128</internalNodes>
          <leafValues>
            -1. -1. 1. -1. -1. 1. -1. 1. -1. 1. -1. -1. -1. 1.</leafValues></_></weakClassifiers></_>
    <!-- stage 7 -->
    <_>
      <maxWeakCount>1</maxWeakCount>
      <stageThreshold>1.</stageThreshold>
      <weakClassifiers>
        <_>
          <internalNodes>
            1 2 77 435300767 391467728 -649600057 261456077 -99932107
            -104202145 -91526347 -1348850600 3 4 104 -404754953
            -1210853071 1090603294 -648158518 -1995840037 -225832831
            -657728650 -4199461 5 6 62 1629162000 71893009 120082
            673562707 -392792063 973680769 -511704528 1359873026 7 8 88
            -586436131 -585820901 -687532705 -41746401 -897015573
            -74805117 -914171505 -71575361 0 9 58 -805302207 84410371 1
            -2055208704 35722 8388608 8423560 134385800 -1 -2 3
            -921701377 -780091367 -1064730536 1494221121 1619249282
            -2147483648 -1832877415 -244606441 -3 10 92 -1048542644
            -2139074560 1073741850 -1601667066 10495025 1077936258
            578879520 537331746 -4 -5 7 -745538593 -519838953 269013121
            -1308127077 -116661297 -805070464 -519052341 -205520929 -6
            -7 0 0 0 0 16777216 0 0 0 0 -8 -9 0 0 0 0 0 0 0 0 536870912
            -10 11 37 21107728 286326784 8224 4198403 12582916 67108960
            536904132 268511300 -11 12 83 71319568 1073741826 4
            -2145255424 33554472 -2080374784 384 786944 -12 13 47 32
            1048576 16842752 0 536870928 33554432 32 576 -13 -14 12 128
            0 0 0 0 0 2048 0</internalNodes>
          <leafValues>
            -1. -1. 1. -1. -1. 1. -1. 1. -1. 1. -1. -1. -1. -1. 1.</leafValues></_></weakClassifiers></_>
    <!-- stage 8 -->
    <_>
      <maxWeakCount>1</maxWeakCount>
      <stageThreshold>1.</stageThreshold>
      <weakClassifiers>
        <_>
          <internalNodes>
            1 2 86 -1610476688 967873813 1363202517 -1076096933
            -1668609027 -69105655 -813107299 -1696838880 3 4 95
            -45089833 -207937089 331370767 -1690044165 -243156581
            -1744813440 -1053984810 -299107433 0 5 18 -1073445790
            -867155686 939612298 1431404618 -654016230 -1300119540
            -803176144 822104066 6 -1 75 -245368321 -174340527 491069837
            -15870821 -184292929 -108419063 -292841489 -72372817 7 8 73
            539169157 -1073381119 0 -2147450867 537002050 33587200
            -2013249404 -58670974 -2 9 106 1694598082 67178625
            1090521352 -939196160 -1073176560 402653314 268444736
            1073849858 -3 -4 6 -537139233 -661797941 -1055719397
            -74192497 -1052589873 -1744797290 -486030613 -269485121 -5
            -6 1 -750696381 -1861214207 65 -1006567421 106497 1073774722
            536969354 -401981429 -7 -8 4 0 268435457 0 0 0 0 2 0 -9 10
            98 -2138996480 30425094 16778240 -2034237440 131073
            1610612736 1207993024 201326594 11 12 108 475394 -2147483646
            0 16 33817088 8388608 553680930 8421890 -10 -11 1
            -2147287038 268435456 0 1342570514 144 0 536903689
            -1073545213 -12 13 24 1073741824 16384 0 4194324 512 0 0
            16779266 -13 -14 3 0 4096 8192 0 0 0 0 0</internalNodes>
          <leafValues>
            -1. 1. -1. -1. 1. -1. 1. -1. 1. -1. -1. 1. -1. -1. 1.</leafValues></_></weakClassifiers></_>
    <!-- stage 9 -->
    <_>
      <maxWeakCount>1</maxWeakCount>
      <stageThreshold>1.</stageThreshold>
      <weakClassifiers>
        <_>
          <internalNodes>
            1 2 13 641265472 586634224 -11124929 -620835680 1926199959
            2143088363 2045767153 1190155602 3 4 45 -778044449
            -1074022629 -1203656673 -16039891 1359446703 -191133551
            -73008389 -85003538 5 6 76 680536100 -1072594463 -1811852934
            503615617 -650081806 -1693204247 1630125051 539015960 0 -1
            50 -116288265 -552269800 1359216767 -585826287 -1610577729
            -1702821664 -1734335765 -7765825 -2 -3 8 268435464 268435456
            67108864 4096 0 0 4227200 17301504 -4 -5 7 -182472489
            273252608 -1056824688 -2127845757 16892099 -1858076640
            -796372854 -36977781 -6 7 84 1188101 1215484337 268554595
            1075347474 -1535074271 2177 1319116832 954233732 -7 8 3
            134359076 833 605061452 -1027010046 8449 -1568598016
            -1995962304 8405536 -8 9 85 268567253 262336 65536 1 540992
            1073774592 -2147481080 536871552 -9 10 103 151007232
            33554432 0 17043456 -2147467248 16777217 64 536875016 -10 11
            59 4100 33619968 0 16777217 -2147481592 1024 0 0 -11 -12 40
            -1073741824 0 0 0 64 0 32 0</internalNodes>
          <leafValues>
            -1. 1. -1. 1. -1. 1. -1. -1. -1. -1. -1. -1. 1.</leafValues></_></weakClassifiers></_></stages>
  <features>
    <_>
      <rect>
        0 0 1 1</rect></_>
    <_>
      <rect>
        0 0 1 2</rect></_>
    <_>
      <rect>
        0 0 1 3</rect></_>
    <_>
      <rect>
        0 0 1 4</rect></_>
    <_>
      <rect>
        0 0 1 5</rect></_>
    <_>
      <rect>
        0 0 1 6</rect></_>
    <_>
      <rect>
        0 0 1 7</rect></_>
    <_>
      <rect>
        0 0 1 8</rect></_>
    <_>
      <rect>
        0 0 2 2</rect></_>
    <_>
      <rect>
        0 0 2 7</rect></_>
    <_>
      <rect>
        0 0 2 8</rect></_>
    <_>
      <rect>
        0 0 3 2</rect></_>
    <_>
      <rect>
        0 0 3 3</rect></_>
    <_>
      <rect>
        0 0 3 5</rect></_>
    <_>
      <rect>
        0 0 4 5</rect></_>
    <_>
      <rect>
        0 0 5 9</rect></_>
    <_>
      <rect>
        0 0 5 10</rect></_>
    <_>
      <rect>
        0 0 7 8</rect></_>
    <_>
      <rect>
        0 0 8 3</rect></_>
    <_>
      <rect>
        0 0 10 3</rect></_>
    <_>
      <rect>
        0 0 10 5</rect></_>
    <_>
      <rect>
        0 1 5 6</rect></_>
    <_>
      <rect>
        0 2 3 6</rect></_>
    <_>
      <rect>
        0 2 5 3</rect></_>
    <_>
      <rect>
        0 2 5 8</rect></_>
    <_>
      <rect>
        0 3 2 5</rect></_>
    <_>
      <rect>
        0 3 9 8</rect></_>
    <_>
      <rect>
        0 3 9 9</rect></_>
    <_>
      <rect>
        0 4 1 4</rect></_>
    <_>
      <rect>
        0 4 3 5</rect></_>
    <_>
      <rect>
        0 4 10 2</rect></_>
    <_>
      <rect>
        0 5 2 4</rect></_>
    <_>
      <rect>
        0 5 9 6</rect></_>
    <_>
      <rect>
        0 6 7 7</rect></_>
    <_>
      <rect>
        0 7 2 3</rect></_>
    <_>
      <rect>
        0 9 3 4</rect></_>
    <_>
      <rect>
        0 13 2 4</rect></_>
    <_>
      <rect>
        0 13 3 5</rect></_>
    <_>
      <rect>
        0 13 3 6</rect></_>
    <_>
      <rect>
        0 14 2 2</rect></_>
    <_>
      <rect>
        0 14 2 5</rect></_>
    <_>
      <rect>
        1 0 10 3</rect></_>
    <_>
      <rect>
        1 1 2 4</rect></_>
    <_>
      <rect>
        1 1 7 6</rect></_>
    <_>
      <rect>
        1 3 7 3</rect></_>
    <_>
      <rect>
        1 5 2 4</rect></_>
    <_>
      <rect>
        1 6 5 1</rect></_>
    <_>
      <rect>
        1 7 3 2</rect></_>
    <_>
      <rect>
        2 1 6 10</rect></_>
    <_>
      <rect>
        2 2 6 3</rect></_>
    <_>
      <rect>
        2 2 9 1</rect></_>
    <_>
      <rect>
        2 3 3 5</rect></_>
    <_>
      <rect>
        2 12 2 2</rect></_>
    <_>
      <rect>
        2 12 2 3</rect></_>
    <_>
      <rect>
        2 15 2 3</rect></_>
    <_>
      <rect>
        3 1 3 6</rect></_>
    <_>
      <rect>
        3 10 2 5</rect></_>
    <_>
      <rect>
        3 12 9 4</rect></_>
    <_>
      <rect>
        3 13 3 4</rect></_>
    <_>
      <rect>
        3 26 1 2</rect></_>
    <_>
      <rect>
        4 0 8 5</rect></_>
    <_>
      <rect>
        4 0 8 6</rect></_>
    <_>
      <rect>
        4 10 4 5</rect></_>
    <_>
      <rect>
        5 0 3 2</rect></_>
    <_>
      <rect>
        5 0 4 1</rect></_>
    <_>
      <rect>
        5 3 5 2</rect></_>
    <_>
      <rect>
        5 6 7 7</rect></_>
    <_>
      <rect>
        5 8 3 6</rect></_>
    <_>
      <rect>
        6 10 4 6</rect></_>
    <_>
      <rect>
        7 0 3 4</rect></_>
    <_>
      <rect>
        7 13 4 4</rect></_>
    <_>
      <rect>
        8 0 5 1</rect></_>
    <_>
      <rect>
        8 2 3 4</rect></_>
    <_>
      <rect>
        8 14 2 4</rect></_>
    <_>
      <rect>
        8 14 3 6</rect></_>
    <_>
      <rect>
        9 0 5 5</rect></_>
    <_>
      <rect>
        9 0 7 4</rect></_>
    <_>
      <rect>
        10 29 2 1</rect></_>
    <_>
      <rect>
        11 6 4 5</rect></_>
    <_>
      <rect>
        11 7 4 7</rect></_>
    <_>
      <rect>
        12 29 2 1</rect></_>
    <_>
      <rect>
        13 0 2 1</rect></_>
    <_>
      <rect>
        13 0 2 3</rect></_>
    <_>
      <rect>
        13 2 1 3</rect></_>
    <_>
      <rect>
        13 3 2 4</rect></_>
    <_>
      <rect>
        13 20 2 4</rect></_>
    <_>
      <rect>
        14 0 2 1</rect></_>
    <_>
      <rect>
        14 1 6 6</rect></_>
    <_>
      <rect>
        14 7 3 1</rect></_>
    <_>
      <rect>
        14 29 2 1</rect></_>
    <_>
      <rect>
        15 15 2 4</rect></_>
    <_>
      <rect>
        17 7 4 8</rect></_>
    <_>
      <rect>
        17 9 5 7</rect></_>
    <_>
      <rect>
        18 0 3 2</rect></_>
    <_>
      <rect>
        18 0 3 3</rect></_>
    <_>
      <rect>
        18 2 3 9</rect></_>
    <_>
      <rect>
        18 2 4 5</rect></_>
    <_>
      <rect>
        18 10 4 6</rect></_>
    <_>
      <rect>
        18 13 4 6</rect></_>
    <_>
      <rect>
        20 1 3 7</rect></_>
    <_>
      <rect>
        20 10 2 6</rect></_>
    <_>
      <rect>
        20 19 4 4</rect></_>
    <_>
      <rect>
        21 7 3 4</rect></_>
    <_>
      <rect>
        23 1 3 6</rect></_>
    <_>
      <rect>
        24 16 2 4</rect></_>
    <_>
      <rect>
        25 5 2 8</rect></_>
    <_>
      <rect>
        26 12 2 2</rect></_>
    <_>
      <rect>
        28 11 1 3</rect></_>
    <_>
      <rect>
        28 13 1 1</rect></_>
    <_>
      <rect>
        29 7 1 3</rect></_></features></cascade>
</opencv_storage>
