<?xml version="1.0"?>
<opencv_storage>
<cascade>
  <stageType>BOOST</stageType>
  <featureType>LBP</featureType>
  <height>32</height>
  <width>32</width>
  <stageParams>
    <boostType>GAB</boostType>
    <minHitRate>9.9500000476837158e-01</minHitRate>
    <maxFalseAlarm>5.0000000000000000e-01</maxFalseAlarm>
    <weightTrimRate>9.4999999999999996e-01</weightTrimRate>
    <maxDepth>8</maxDepth>
    <maxWeakCount>128</maxWeakCount></stageParams>
  <featureParams>
    <maxCatCount>256</maxCatCount>
    <featSize>1</featSize></featureParams>
  <stageNum>13</stageNum>
  <stages>
    <!-- stage 0 -->
    <_>
      <maxWeakCount>1</maxWeakCount>
      <stageThreshold>1.</stageThreshold>
      <weakClassifiers>
        <_>
          <internalNodes>
            1 2 80 1585495052 -15085167 -1861139003 1468072724
            -1584863041 -1901494072 1216514554 280856576 3 4 147
            -71305229 -1794928509 -1050427363 -754456376 -796671573
            -1039564798 -989334381 -357568001 5 6 121 784220157
            1073643515 -1 1056866303 -1074298884 -1073971175 -1074839560
            351935765 0 -1 10 -707789825 -748699445 33624325 -249345967
            -490088561 -1073577840 -988818757 -3148337 -2 -3 24 16810648
            -2147418112 49 1358954624 35 2048 -2147483648 1084227584 7 8
            43 -637406753 -779812479 276906052 -1588510455 8685961
            687865866 -2146926438 -544664949 -4 9 70 -1073704916
            -1006108672 559248 -2143289088 537133059 4784136 8527872
            1648664619 -5 -6 1 -158870577 -770489663 -2130704443
            1401487617 -1593588017 -2147188734 -1065189233 -110636105 -7
            -8 0 16 0 0 0 0 0 0 0 -9 10 120 16416 603979776 10 8
            -2147483627 1612742656 4 537460881 11 12 27 32778 0 128
            -2146951168 -2147385343 -2147483648 -2139095032 16777216 -10
            -11 0 32775 0 0 50331648 128 0 32768 -1040187391 -12 -13 20
            0 16384 1073741824 0 0 0 0 0</internalNodes>
          <leafValues>
            -1. 1. -1. 1. -1. -1. 1. -1. 1. -1. -1. 1. -1. 1.</leafValues></_></weakClassifiers></_>
    <!-- stage 1 -->
    <_>
      <maxWeakCount>1</maxWeakCount>
      <stageThreshold>1.</stageThreshold>
      <weakClassifiers>
        <_>
          <internalNodes>
            1 2 129 -1534836139 -1294835365 -1708979722 -48562027
            -931125025 2038675851 -1467274242 -1465908419 3 4 100
            -1727999783 -721420016 -788459041 -585822071 -1912032776
            -1196949352 -1903646069 -1163295846 5 6 44 403830794
            -1063735293 14696846 583008587 -2097059817 268503042
            12747303 1342685511 7 0 107 -707012131 -44482287 -1793898407
            -719759 -1199527169 -1182236528 -1417442561 -69498385 -1 -2
            54 1073845633 273 0 16973824 33057 -2139095040 -2139094912
            1090830336 -3 -4 2 -213393085 1359183872 0 -771555072
            -2147262461 -1744830336 536969387 -758414453 -5 8 49
            537953344 -2147483507 285278224 1631650064 -2147446623
            -1954545664 16816778 9699458 -6 -7 4 -673186897 -209194461
            1090585089 -217857149 -1056734837 -1610579968 -939294417
            -203425089 -8 9 89 -2147417850 4210688 132 1241514120
            33622016 1073741825 20608 546701315 -9 10 139 1082163200
            16385 16777216 -2146435072 0 -1073676287 0 65536 -10 11 93 0
            285212672 16777216 16777216 -2147483648 0 8192 0 -11 -12 5
            4194304 0 0 0 0 0 0 0</internalNodes>
          <leafValues>
            1. -1. 1. -1. 1. -1. -1. 1. -1. -1. -1. -1. 1.</leafValues></_></weakClassifiers></_>
    <!-- stage 2 -->
    <_>
      <maxWeakCount>1</maxWeakCount>
      <stageThreshold>1.</stageThreshold>
      <weakClassifiers>
        <_>
          <internalNodes>
            1 2 111 466768373 -70885113 1426117087 533993626 136839409
            -1080426463 142749401 -1895684000 3 4 131 -737141251
            -577695465 -1795107361 -44101358 -2122180466 -5635446
            -1962825059 -88526662 5 6 27 -30611410 2130608125 -524292
            -1459765378 -151130249 -1 -16842947 17951542 7 8 72
            419484157 -149880687 356684115 -1691283390 -1199535431
            -1187381112 -1995929157 -73721718 0 9 128 -1073225469
            16973824 -2147483392 130 0 0 16514 1082360384 -1 10 69
            -238816809 -721354734 65544 -654212857 -1604190064 539033610
            -1970732902 -263980917 -2 11 105 1052736 -2080276471 557083
            -804220927 -2147483648 8388609 262289 536889600 -3 -4 132
            -245892609 -537804011 285986973 -48507061 -586561349
            -787871614 -1073296501 -1051697 -5 -6 2 1073844224 0 0 65536
            0 0 0 -2147483648 -7 -8 0 0 0 0 0 0 0 0 2 -9 -10 0 1 0 0 0 0
            -2147483648 0 0 12 13 118 -285557136 -2143195168 256 32769
            294944 -2143289088 65536 360448 -11 -12 1 17563803
            -2147483648 0 134217728 2 134217728 1073774721 -2126413822
            -13 14 46 33624064 1 0 16384 512 0 0 4198401 -14 -15 6 0 0 0
            0 0 150994944 0 0</internalNodes>
          <leafValues>
            -1. -1. -1. -1. 1. -1. 1. -1. 1. -1. 1. -1. 1. -1. -1. 1.</leafValues></_></weakClassifiers></_>
    <!-- stage 3 -->
    <_>
      <maxWeakCount>1</maxWeakCount>
      <stageThreshold>1.</stageThreshold>
      <weakClassifiers>
        <_>
          <internalNodes>
            1 2 77 33881873 -1275625071 -1876576929 -1075871336
            -1416926477 -75332149 -607092295 -374341359 3 4 123
            2102785023 1192804767 1090635187 -412890417 -926711127
            -92110525 -205259901 -16821 5 6 127 -269488390 822018047
            -1342246934 -2033127686 2146455863 1610612736 34016192
            904101270 7 8 82 -137888905 -382137969 554696979 -541085553
            -2132823873 -670857048 -234371857 -68160521 0 9 97
            -1744764813 -2147483630 98305 -1610547200 16416 536870912
            18568 -1206828607 -1 10 71 -1056714441 1497465923 16896015
            1606516740 302073999 49289 -1341931345 -290731637 -2 11 55
            -1073655644 143659025 128 -1610534896 1342198272 1621100706
            67698720 1117143111 -3 -4 16 -144967713 -211840745 84048215
            -573095905 -661663605 -128329341 -167257638 -67114001 -5 -6
            0 134217728 0 0 8 0 0 0 0 -7 -8 1 0 0 0 0 0 0 0 1342177280
            -9 -10 1 0 16777216 0 0 0 2 0 0 12 13 135 1078001672
            620761088 0 131074 1 128 130 17411 -11 -12 0 1342345216
            1091567680 32768 -2147483648 128 0 33587328 -2138947456 -13
            14 60 0 0 285212672 0 0 549453826 131072 163842 -14 -15 25
            32768 0 0 0 0 0 2056 0</internalNodes>
          <leafValues>
            -1. -1. -1. -1. 1. -1. 1. -1. 1. -1. 1. -1. 1. -1. -1. 1.</leafValues></_></weakClassifiers></_>
    <!-- stage 4 -->
    <_>
      <maxWeakCount>1</maxWeakCount>
      <stageThreshold>1.</stageThreshold>
      <weakClassifiers>
        <_>
          <internalNodes>
            1 2 112 676476017 -1147251303 18415903 1071566875
            -1165344071 1527417018 -357688839 -1097332604 3 4 30
            1623718903 -71188337 -520058473 -1285298175 -2037660773
            -1333358449 -124656753 -318768145 5 6 45 -661139452
            1377796231 114688 -301980480 681574449 1109426186
            -1870445999 1678925827 7 0 68 1578209757 -654241583
            285213085 -547549095 -938964801 -58195958 -1601648449
            -82214005 -1 8 53 3 -805224448 264 1346371586 34984 131600
            18446 -1736179712 -2 -3 1 -747376633 1342214305 -2139095039
            -1861496063 -1879015334 -1878982656 -2143174514 -343179253
            -4 9 50 1157632264 -536833960 25296904 269352960 4 163840
            4489344 1622245411 -5 -6 103 -210240513 -583811057 29889155
            -772051569 -1047690801 -1560030974 1141805231 -69216769 -7
            -8 0 0 0 0 0 0 0 2 536870912 -9 10 108 537248204 1073280 2
            262146 2097681 16908288 529024 16777219 11 12 144 939786316
            788414328 -1342177282 -1363247108 -2130696323 134218240
            805271104 151527269 -10 -11 0 1073741969 1048576 -2147483648
            536870912 655488 -1073741824 -2147483512 1358987264 -12 13
            136 0 0 32768 0 -2147483648 1207959680 0 545325062 -13 -14
            48 3966496 -1359052800 110 0 0 2130706432 2147449938
            216458576</internalNodes>
          <leafValues>
            1. -1. -1. 1. -1. -1. 1. -1. 1. -1. -1. 1. -1.
            -6.6666668653488159e-01 1.</leafValues></_></weakClassifiers></_>
    <!-- stage 5 -->
    <_>
      <maxWeakCount>1</maxWeakCount>
      <stageThreshold>1.</stageThreshold>
      <weakClassifiers>
        <_>
          <internalNodes>
            1 2 148 -756031515 -1392066157 494998855 -814120741
            -552685007 -2138865277 -773721515 -891289869 3 4 38
            -713031857 -158777024 -1052667490 -939038337 -582227399
            -1597046589 -1110996761 -136333597 5 6 51 -750360806
            539087121 1124405522 72179720 1094762496 -268435454
            -1878245376 1435770885 7 8 150 -207619245 -351547229
            -1006530560 -671005887 -1065121533 -2139029504 -805072245
            -2105377 0 9 58 1074004299 92291075 671088640 -738179072
            536903833 134250497 -1459519487 -2113208309 -1 -2 23
            -1726397675 -721321855 16779281 1963000065 -2079326071
            -2146762232 -2130706293 -542949237 -3 10 84 335630372
            134217728 4354 -1609531391 35127320 33024 -2088665088
            639645825 -4 -5 15 -202379777 -779882305 -2121182705
            -551839333 -108531281 -1576531837 -1549606401 -1029 -6 -7 0
            16809984 0 0 268435456 0 0 256 0 -8 -9 29 65536 134283264
            131136 16777217 136 0 2 0 -10 11 99 33562880 256 2309
            1073741825 32792 806354946 8913024 771756032 -11 12 102 66 0
            -2080374718 1073741824 4 65536 1074790400 524420 -12 -13 63
            -2147483648 0 0 0 33554432 2 0 33554440</internalNodes>
          <leafValues>
            -1. -1. 1. -1. -1. 1. -1. 1. -1. 1. -1. -1. -1. 1.</leafValues></_></weakClassifiers></_>
    <!-- stage 6 -->
    <_>
      <maxWeakCount>1</maxWeakCount>
      <stageThreshold>1.</stageThreshold>
      <weakClassifiers>
        <_>
          <internalNodes>
            1 2 122 1064714237 -1442906113 2101678551 -1077968897
            -1308558339 -1383161721 1341619711 -1347256452 3 4 78
            -2141209035 -107932463 -2061693955 1574371724 -266162694
            -6772600 1476635563 -1363726975 5 6 59 -804728030
            -1039073278 268501156 -531234807 805379140 1660977162
            2326556 1109549568 7 8 65 -745014273 -170659699 -788528129
            -111948593 -381444161 -41320277 -392566597 -2360409 9 10 39
            -779013882 -654307328 1150981 -1337909244 -1073643508 64
            -2146860406 -1677117373 0 -1 21 -1727950405 285294599
            1073807385 -1861221887 553683080 -1458561024 1627930646
            -927522679 -2 11 81 285213476 34078728 536879106 604242441
            -2147483646 1073905664 537145345 2293762 12 -3 90 -249824289
            -49171435 -1995203107 -182644391 -1048470625 -74809252
            -1433761093 -283765 -4 -5 0 0 262144 0 0 0 268435456 0 0 -6
            -7 3 -1055272441 -1072623614 302022656 285605889 1073913856
            32768 1610645505 -586194805 -8 -9 101 1476411434 65537 9
            98560 134217736 0 19 4 13 14 73 -272560128 1870626687
            -135176 -1494089730 805306231 67043197 1975285894 327524 -10
            -11 32 -179160577 -577564589 286382495 -553414477
            -1987385207 -74938235 -637498469 -1079385858 -12 -13 0
            -788496248 8388608 80 -1065353216 65544 32 16777216
            -1874296830 -14 -15 8 -2147450752 0 65536 0 128 0
            -1073741824 131072</internalNodes>
          <leafValues>
            -1. 1. -1. 1. -1. 1. -1. 1. -1. 1. -1. 1. -1. 1. -1. 1.</leafValues></_></weakClassifiers></_>
    <!-- stage 7 -->
    <_>
      <maxWeakCount>1</maxWeakCount>
      <stageThreshold>1.</stageThreshold>
      <weakClassifiers>
        <_>
          <internalNodes>
            1 2 98 420706815 1015599543 -1794007585 125194712 707402449
            -1181015918 682492521 210176256 3 4 137 -70780961
            -1851865521 26968671 -19343846 -381552165 -92216693
            -1416551717 -272700530 5 6 61 1352366142 1648578965
            -1593745148 -1897233084 272830528 1711311238 1252217956
            1367601938 7 8 69 -673185793 -715394081 -1853505381
            -107117093 -573833217 -90013271 -322174993 -1058049 0 9 140
            -780004989 1342185475 1610612736 268435457 65538 131072 1
            1368457352 -1 -2 2 -641601009 -1073430503 16386 -721178559
            -1073184382 -1879031806 -1735867765 -792206441 10 11 116
            1531070468 143 16793602 -2113871849 25176100 999326722
            -1072652223 1354778888 -3 -4 22 -572916257 -778464841
            -578270021 -48656105 -895833665 -347766616 -1467380801
            -4474657 -5 -6 1 0 32768 0 0 0 0 0 16384 -7 -8 0 1 0 0 0 0 0
            0 134283264 -9 -10 0 -792510059 -1879048191 1073741825
            -654245632 -938966911 -1342177280 134090 -918061046 -11 12
            64 262144 -854587392 16777234 -419426288 -1073575860
            50855936 8421376 2097156 -12 13 138 8192 -2130673663 0 385
            8421377 557056 1208025088 163846 -13 14 79 268468224
            268435472 64 65536 0 0 26 268435456 -14 -15 76 0 0 0
            67108864 16 0 0 1107329024</internalNodes>
          <leafValues>
            -1. -1. 1. -1. 1. -1. 1. -1. 1. -1. 1. -1. -1. -1. -1. 1.</leafValues></_></weakClassifiers></_>
    <!-- stage 8 -->
    <_>
      <maxWeakCount>1</maxWeakCount>
      <stageThreshold>1.</stageThreshold>
      <weakClassifiers>
        <_>
          <internalNodes>
            1 2 22 776253092 217406938 -984311588 -1644180006
            -1613104145 -307525445 -288251915 -408665228 3 4 149
            -168820737 -1046887561 1367478533 -40123881 -1048140833
            -2101018623 1770494179 -16780613 5 6 109 -1805872873
            -1535061756 251805952 46564882 161701893 1507234360
            -2107606976 1894811697 0 -1 94 -29108737 -249751215
            1426475517 -2293612 -1140741121 -100559735 -1465195845
            -74872689 -2 -3 17 8454464 67108864 32 1107296256 128 4 0
            1107329040 -4 -5 24 -564330273 285573249 -1862197083
            -1516929016 -1870264191 -2013265909 -805271365 -70545733 -6
            7 41 2069106702 46350543 285413404 268603918 352350564
            444628992 -2112028160 4393232 8 9 13 8388640 68157515
            -1593704319 -1937637264 536936448 -1056276350 134742272
            1074790465 -7 -8 0 1073791387 -1878982656 17 402718848
            -2147385206 32768 32905 -628943869 -9 10 40 297795712
            268583936 0 134513168 -2147418112 1107427328 1572928
            37748736 -10 11 87 32776 1050656 65536 4096 2048 537395200
            268437504 1677721600 -11 12 66 16777216 16777216 0
            1073774720 32 0 128 0 -12 -13 33 0 0 65536 0 0 0 2 0</internalNodes>
          <leafValues>
            -1. 1. -1. 1. -1. 1. -1. -1. 1. -1. -1. -1. -1. 1.</leafValues></_></weakClassifiers></_>
    <!-- stage 9 -->
    <_>
      <maxWeakCount>1</maxWeakCount>
      <stageThreshold>1.</stageThreshold>
      <weakClassifiers>
        <_>
          <internalNodes>
            1 2 117 -1275118129 244368381 -749602674 -1363650090
            1774797621 420201115 2090455924 -84087880 3 4 86 -10648097
            -101218221 -2147248745 -690800639 -87899809 2070593119
            -514901969 -1096025109 5 6 74 201818946 672489607 67109658
            -1974401722 4218465 1434722477 596174849 1692697190 0 -1 31
            -134218241 -203170353 -490647341 -774900857 -793271621
            -661794815 -1035413349 -1477 -2 7 96 -2146351079 1090600964
            48 957415489 -2139095021 4196866 -1065349118 -939515904 -3
            -4 7 -236887929 1361154357 268435609 -2121169664 -1610569589
            -889020280 -2146926450 -473461238 8 9 133 -2059300714
            147194114 272896 -2147483504 1133519136 680558689 4195008
            160432257 -5 -6 0 0 0 64 -2147483648 0 0 128 65536 -7 -8 0
            -804683565 -805175296 1073758213 -1727977472 268534659
            -2147450880 1074399362 -903118718 -9 10 15 168520 138936328
            0 1246052388 269230088 -1207828472 -2013163520 270532624 -10
            11 92 16392 -2129657824 16777473 0 -2147352576 -2013233152
            268435520 672137216 12 13 113 16543524 -2147483647 0
            268435456 32768 -1073840640 -134283275 212868452 -11 -12 0
            1073741952 16777216 0 16777216 8 0 2048 -2147418110 -13 -14
            42 0 32768 268435456 0 0 0 0 8</internalNodes>
          <leafValues>
            -1. 1. -1. -1. 1. -1. 1. -1. 1. -1. -1. -1. 1. -1. 1.</leafValues></_></weakClassifiers></_>
    <!-- stage 10 -->
    <_>
      <maxWeakCount>1</maxWeakCount>
      <stageThreshold>1.</stageThreshold>
      <weakClassifiers>
        <_>
          <internalNodes>
            1 2 104 367344605 -1177366236 -1859822209 -1379793447
            -628532883 -8361811 722349053 -1641477764 3 4 114 2125921109
            -6565362 42064731 -539209329 -879593253 -1148663621
            -1693856293 -1237651137 0 5 62 -536227780 201474433
            1476481190 -1269153536 402663968 279102601 -2012216800
            825065522 6 7 67 -170926177 -78163551 -784256587 -70659309
            -2146717697 -2010513201 -880023285 -4461585 -1 8 95
            1367417155 268468480 8388864 -1593606134 -1065188864 32776
            -1879047666 1883416715 -2 9 142 285704208 4816896 16810243
            16973824 -2113929216 1140916224 -1610512380 312194 10 -3 125
            -719457793 -40741531 -686437089 -548055287 -2002197841
            -1149007687 -930379269 -69500261 -4 -5 9 1074267136 0 0 9 0
            -2147483648 4194304 8388752 -6 -7 34 268435456 -2147483648 1
            1048836 269484290 -2147483648 0 537919488 -8 11 19 4194338
            -2139094847 1073741824 67305478 -1040056272 1073873026 8704
            538247168 -9 -10 12 -744760353 -36470767 855740765 -16154221
            -259938049 -7634550 -1434322465 -6567249 12 13 106 4
            101187584 0 16400 -2147352064 134217728 134217736 33556480
            -11 -12 2 4259843 32768 1 536870912 65536 128 0 -2147483637
            -13 -14 124 8192 -2147467264 0 0 0 0 33554432 524296</internalNodes>
          <leafValues>
            -1. -1. -1. 1. -1. 1. -1. 1. -1. -1. 1. -1. 1. -1. 1.</leafValues></_></weakClassifiers></_>
    <!-- stage 11 -->
    <_>
      <maxWeakCount>1</maxWeakCount>
      <stageThreshold>1.</stageThreshold>
      <weakClassifiers>
        <_>
          <internalNodes>
            1 2 119 649477939 -1563126377 -279604773 -1362168363
            1498792800 -1182549782 -623328284 -1160495292 3 4 145
            -2490425 -553287597 -914243305 -744394475 -2122057157
            -763133904 -1734753909 -310903873 5 6 126 -2128864419 530564
            1426174749 676485275 1342245019 -652606838 -1096736768
            478675860 7 0 35 -573580289 -783251057 -2125885173
            -250879905 -788269169 -360102714 -348462629 -1052673 -1 -2
            47 269516864 -1879048192 0 -2130705152 2 142606464 33589256
            -1442840576 -3 -4 52 318862807 1561329680 1073875217
            -1861680098 -125792775 -2147352561 -989812566 -880237797 8 9
            26 -1609529470 46792962 16777605 -863055799 1644234787
            1476939787 788529156 1124553792 -5 -6 18 -145238049
            -204484337 -2130356977 -37511699 -780084305 -343351122
            -929912113 -70516737 -7 -8 11 -2126251325 880803986 65664
            -1043857007 1091698754 16384 1073889411 -1433687349 -9 10
            130 -1040055860 4390912 24578 -2146041854 268435456
            1073741824 -1056960240 268567699 -10 11 91 528 34308 4096
            -2146304000 -1610547184 688406536 -2147475456 33581120 -11
            12 88 16448 16 128 67108864 18432 536936448 0 135266432 -12
            13 134 -2147483644 0 16777216 0 0 128 16842752 1 -13 -14 36
            0 0 0 0 0 0 129 0</internalNodes>
          <leafValues>
            1. -1. 1. -1. 1. -1. 1. -1. 1. -1. -1. -1. -1. -1. 1.</leafValues></_></weakClassifiers></_>
    <!-- stage 12 -->
    <_>
      <maxWeakCount>1</maxWeakCount>
      <stageThreshold>1.</stageThreshold>
      <weakClassifiers>
        <_>
          <internalNodes>
            1 2 110 500988927 -510028592 151110547 1042563924 1770588209
            -347291516 2020286901 -1410581912 3 4 141 -78921729
            1429684507 271139983 -648179451 -654577217 2047344649
            1787034567 -69829906 5 6 115 -90331900 -905854901 88100947
            1146274049 -1065121598 -1946075002 -2134343576 619303264 7 8
            143 -69736481 -12848621 1342279895 -4198181 -1035679557
            -1953791998 -1844712549 -2102881 0 9 57 -1073053695 34604032
            67108864 -1845454719 10241 2359296 -2147450805 -2130509181
            -1 -2 56 1073836519 -1055326127 1342210087 -246071167
            -2147448389 -2145709056 411598991 -72514821 -3 10 85
            1074971694 8863745 67109124 -1945894751 270369 -1065345013
            -2013265903 543458054 -4 -5 28 -541721097 -738751353
            -1726738155 -537403069 -235697205 -1417994230 -1983346213
            -72746757 -6 -7 0 0 1048576 0 0 0 0 0 0 -8 -9 2 1024 0 0 0
            131072 0 8 134217728 11 12 83 -2101346292 128 2052
            -1877983104 32800 -1342076920 1207959585 109581344 -10 -11 0
            -2147417982 -1073741808 1048592 67174544 -1577025493
            -2147483640 -1996488574 -828375038 -12 13 75 131236
            805306368 128 34079744 536870912 -2139094012 16385 545260160
            -13 14 37 40972 16779266 0 131072 33554432 0 0 2560 -14 15
            146 67112960 0 1073741832 1073758209 0 0 0 0 -15 -16 14 0 0
            0 0 0 0 0 65536</internalNodes>
          <leafValues>
            -1. -1. 1. -1. -1. 1. -1. 1. -1. 1. -1. 1. -1. -1. -1. -1.
            1.</leafValues></_></weakClassifiers></_></stages>
  <features>
    <_>
      <rect>
        0 0 1 1</rect></_>
    <_>
      <rect>
        0 0 1 2</rect></_>
    <_>
      <rect>
        0 0 1 3</rect></_>
    <_>
      <rect>
        0 0 1 4</rect></_>
    <_>
      <rect>
        0 0 1 6</rect></_>
    <_>
      <rect>
        0 0 1 10</rect></_>
    <_>
      <rect>
        0 0 2 1</rect></_>
    <_>
      <rect>
        0 0 2 4</rect></_>
    <_>
      <rect>
        0 0 2 5</rect></_>
    <_>
      <rect>
        0 0 2 6</rect></_>
    <_>
      <rect>
        0 0 2 7</rect></_>
    <_>
      <rect>
        0 0 2 8</rect></_>
    <_>
      <rect>
        0 0 3 1</rect></_>
    <_>
      <rect>
        0 0 3 2</rect></_>
    <_>
      <rect>
        0 0 3 4</rect></_>
    <_>
      <rect>
        0 0 3 7</rect></_>
    <_>
      <rect>
        0 0 3 8</rect></_>
    <_>
      <rect>
        0 0 3 9</rect></_>
    <_>
      <rect>
        0 0 4 6</rect></_>
    <_>
      <rect>
        0 0 4 9</rect></_>
    <_>
      <rect>
        0 0 5 2</rect></_>
    <_>
      <rect>
        0 0 5 4</rect></_>
    <_>
      <rect>
        0 0 6 2</rect></_>
    <_>
      <rect>
        0 0 7 4</rect></_>
    <_>
      <rect>
        0 0 7 8</rect></_>
    <_>
      <rect>
        0 0 9 6</rect></_>
    <_>
      <rect>
        0 1 2 4</rect></_>
    <_>
      <rect>
        0 1 2 7</rect></_>
    <_>
      <rect>
        0 1 4 2</rect></_>
    <_>
      <rect>
        0 1 8 5</rect></_>
    <_>
      <rect>
        0 2 1 4</rect></_>
    <_>
      <rect>
        0 2 2 4</rect></_>
    <_>
      <rect>
        0 3 10 2</rect></_>
    <_>
      <rect>
        0 4 2 1</rect></_>
    <_>
      <rect>
        0 4 2 2</rect></_>
    <_>
      <rect>
        0 4 2 7</rect></_>
    <_>
      <rect>
        0 5 1 8</rect></_>
    <_>
      <rect>
        0 5 3 8</rect></_>
    <_>
      <rect>
        0 7 1 2</rect></_>
    <_>
      <rect>
        0 8 2 3</rect></_>
    <_>
      <rect>
        0 8 2 8</rect></_>
    <_>
      <rect>
        0 8 5 8</rect></_>
    <_>
      <rect>
        0 10 3 6</rect></_>
    <_>
      <rect>
        0 11 6 5</rect></_>
    <_>
      <rect>
        0 12 2 2</rect></_>
    <_>
      <rect>
        0 13 2 2</rect></_>
    <_>
      <rect>
        0 13 3 5</rect></_>
    <_>
      <rect>
        0 22 3 2</rect></_>
    <_>
      <rect>
        1 0 5 1</rect></_>
    <_>
      <rect>
        1 0 9 3</rect></_>
    <_>
      <rect>
        1 1 10 7</rect></_>
    <_>
      <rect>
        1 2 4 9</rect></_>
    <_>
      <rect>
        1 3 7 3</rect></_>
    <_>
      <rect>
        1 4 5 3</rect></_>
    <_>
      <rect>
        1 5 10 8</rect></_>
    <_>
      <rect>
        1 7 9 6</rect></_>
    <_>
      <rect>
        1 8 6 7</rect></_>
    <_>
      <rect>
        1 9 1 2</rect></_>
    <_>
      <rect>
        1 9 4 7</rect></_>
    <_>
      <rect>
        1 9 7 7</rect></_>
    <_>
      <rect>
        1 10 4 2</rect></_>
    <_>
      <rect>
        1 12 6 5</rect></_>
    <_>
      <rect>
        1 16 7 5</rect></_>
    <_>
      <rect>
        1 17 2 3</rect></_>
    <_>
      <rect>
        2 0 6 3</rect></_>
    <_>
      <rect>
        2 1 3 3</rect></_>
    <_>
      <rect>
        2 2 3 7</rect></_>
    <_>
      <rect>
        2 2 4 10</rect></_>
    <_>
      <rect>
        2 3 6 1</rect></_>
    <_>
      <rect>
        2 11 4 7</rect></_>
    <_>
      <rect>
        2 12 1 1</rect></_>
    <_>
      <rect>
        2 13 2 2</rect></_>
    <_>
      <rect>
        2 29 5 1</rect></_>
    <_>
      <rect>
        3 2 9 3</rect></_>
    <_>
      <rect>
        4 11 4 5</rect></_>
    <_>
      <rect>
        4 12 1 3</rect></_>
    <_>
      <rect>
        4 19 6 1</rect></_>
    <_>
      <rect>
        5 0 3 2</rect></_>
    <_>
      <rect>
        5 0 4 1</rect></_>
    <_>
      <rect>
        5 0 9 3</rect></_>
    <_>
      <rect>
        5 0 9 4</rect></_>
    <_>
      <rect>
        5 2 9 9</rect></_>
    <_>
      <rect>
        5 3 2 7</rect></_>
    <_>
      <rect>
        5 5 2 3</rect></_>
    <_>
      <rect>
        5 8 2 2</rect></_>
    <_>
      <rect>
        5 13 7 6</rect></_>
    <_>
      <rect>
        5 14 3 6</rect></_>
    <_>
      <rect>
        5 14 4 2</rect></_>
    <_>
      <rect>
        5 15 2 2</rect></_>
    <_>
      <rect>
        6 4 6 7</rect></_>
    <_>
      <rect>
        7 3 2 1</rect></_>
    <_>
      <rect>
        7 17 3 4</rect></_>
    <_>
      <rect>
        7 27 1 1</rect></_>
    <_>
      <rect>
        8 0 4 2</rect></_>
    <_>
      <rect>
        8 4 4 1</rect></_>
    <_>
      <rect>
        8 14 1 3</rect></_>
    <_>
      <rect>
        9 0 5 2</rect></_>
    <_>
      <rect>
        9 20 2 2</rect></_>
    <_>
      <rect>
        9 29 5 1</rect></_>
    <_>
      <rect>
        10 0 3 3</rect></_>
    <_>
      <rect>
        10 0 5 1</rect></_>
    <_>
      <rect>
        10 4 6 6</rect></_>
    <_>
      <rect>
        10 9 5 4</rect></_>
    <_>
      <rect>
        10 19 1 3</rect></_>
    <_>
      <rect>
        10 29 3 1</rect></_>
    <_>
      <rect>
        11 0 3 2</rect></_>
    <_>
      <rect>
        11 0 4 1</rect></_>
    <_>
      <rect>
        11 7 5 2</rect></_>
    <_>
      <rect>
        12 20 5 4</rect></_>
    <_>
      <rect>
        12 21 3 3</rect></_>
    <_>
      <rect>
        12 29 1 1</rect></_>
    <_>
      <rect>
        12 29 2 1</rect></_>
    <_>
      <rect>
        13 0 2 1</rect></_>
    <_>
      <rect>
        13 0 2 3</rect></_>
    <_>
      <rect>
        13 0 6 2</rect></_>
    <_>
      <rect>
        13 0 6 4</rect></_>
    <_>
      <rect>
        13 13 4 4</rect></_>
    <_>
      <rect>
        13 15 2 3</rect></_>
    <_>
      <rect>
        14 2 5 6</rect></_>
    <_>
      <rect>
        14 4 2 3</rect></_>
    <_>
      <rect>
        14 19 6 4</rect></_>
    <_>
      <rect>
        15 29 1 1</rect></_>
    <_>
      <rect>
        15 29 2 1</rect></_>
    <_>
      <rect>
        16 10 3 7</rect></_>
    <_>
      <rect>
        16 15 1 5</rect></_>
    <_>
      <rect>
        16 24 4 2</rect></_>
    <_>
      <rect>
        16 26 2 2</rect></_>
    <_>
      <rect>
        17 6 5 8</rect></_>
    <_>
      <rect>
        17 14 2 4</rect></_>
    <_>
      <rect>
        18 0 3 2</rect></_>
    <_>
      <rect>
        18 8 4 8</rect></_>
    <_>
      <rect>
        19 0 3 1</rect></_>
    <_>
      <rect>
        19 11 4 6</rect></_>
    <_>
      <rect>
        19 13 4 5</rect></_>
    <_>
      <rect>
        20 6 3 3</rect></_>
    <_>
      <rect>
        20 6 4 6</rect></_>
    <_>
      <rect>
        21 4 3 2</rect></_>
    <_>
      <rect>
        21 13 3 5</rect></_>
    <_>
      <rect>
        22 5 3 4</rect></_>
    <_>
      <rect>
        22 8 2 6</rect></_>
    <_>
      <rect>
        23 1 2 7</rect></_>
    <_>
      <rect>
        23 11 3 6</rect></_>
    <_>
      <rect>
        25 7 2 3</rect></_>
    <_>
      <rect>
        25 17 2 4</rect></_>
    <_>
      <rect>
        25 29 1 1</rect></_>
    <_>
      <rect>
        26 0 2 5</rect></_>
    <_>
      <rect>
        27 4 1 2</rect></_>
    <_>
      <rect>
        27 7 1 4</rect></_>
    <_>
      <rect>
        27 16 1 1</rect></_>
    <_>
      <rect>
        28 7 1 4</rect></_>
    <_>
      <rect>
        29 2 1 7</rect></_></features></cascade>
</opencv_storage>
