<?xml version="1.0"?>
<opencv_storage>
<stage0>
  <maxWeakCount>2</maxWeakCount>
  <stageThreshold>-1.2387103924993426e-04</stageThreshold>
  <weakClassifiers>
    <_>
      <internalNodes>
        1 2 4 -422646066 -368916957 -1073507071 -536756150 -804544373
        -1035755390 -787754801 2147220191 3 4 9939 -178792493 -217333557
        -1052532590 -675166901 -753049589 -1073135605 -213663093
        -100663297 5 6 824 782246084 -1 -69633 -1073741825 -1241513985
        -1 2146957503 1879015383 0 -1 8650 -33554513 -263987025
        -2147381247 -683419465 -528365397 -1275068416 -1878850841
        -70254609 -2 -3 111 1350565898 16875520 0 65537 10 268435456
        16785417 1077936192 -4 -5 4494 268554741 -1073659515 268501003
        -1795096576 -1073741688 -2071986176 -2147483256 -100128640 -6 -7
        9961 4324608 -285213696 0 65536 0 0 -2147418112 1845493620</internalNodes>
      <leafValues>
        -9.8559421300888062e-01 1. -1. 1. -9.8400002717971802e-01
        6.6666668653488159e-01 -8.0952382087707520e-01
        9.9156117439270020e-01</leafValues></_>
    <_>
      <internalNodes>
        1 2 7008 34086389 -33697573 1359043071 -539376995 -913798657
        -7821158 -251090513 2146163675 3 4 7024 298408313 -109477831
        956338685 -44185149 -224865861 -660045696 -1458513409 -543442453
        5 6 441 -1073101682 -1073741816 0 -1073709056 -939474815
        16777216 675283651 1308866691 0 -1 5838 -212338721 -179072621
        318865623 -750533923 -787234417 -81538929 -489961057 -529 -2 -3
        798 16 268435456 268435472 285212672 32784 -2147483648 268435584
        524296 -4 -5 131 1145300199 268435969 0 -805240832 -935231486
        -1073741822 98312 -359169597 -6 -7 9961 -2147348480 1073741825 0
        -2147467264 1073741824 -2147483648 -2147418112 1073971264</internalNodes>
      <leafValues>
        -9.7282522916793823e-01 1. -1. 1. -1. 1. -1.
        9.8547035455703735e-01</leafValues></_></weakClassifiers></stage0>
</opencv_storage>
