<?xml version="1.0"?>
<opencv_storage>
<stage3>
  <maxWeakCount>2</maxWeakCount>
  <stageThreshold>-3.7957381457090378e-02</stageThreshold>
  <weakClassifiers>
    <_>
      <internalNodes>
        1 2 5508 285213045 -34219803 -249966081 -2243243 -115021317
        -107364161 -283444321 2138766063 3 4 6508 341332981 -715550251
        -977183393 -3761897 -6005509 -340082518 -100472133 -1076236128 5
        6 0 -1494434561 -289406977 -268435457 -16977921 -1 -1 -1
        2139095038 0 -1 2763 -780271617 -116670321 -679276337 -539391521
        -3151873 -96417105 -12061717 -67111953 -2 -3 4104 536985677
        -788447232 1074298882 -2138046460 -2147381247 536870912
        536940552 170459137 -4 -5 9090 -721366607 -192675819 151093508
        1098907657 -2080292700 1610612896 -117405560 -611794294 -6 -7
        480 -286273810 -286330898 0 0 -2147483640 -2147483648 -32760
        1711210495</internalNodes>
      <leafValues>
        -9.7689342498779297e-01 1. -8.5964912176132202e-01
        9.2727273702621460e-01 -9.8518520593643188e-01
        5.3846156597137451e-01 -7.8571426868438721e-01
        9.8447895050048828e-01</leafValues></_>
    <_>
      <internalNodes>
        1 2 9900 -606650507 -35666287 -803744929 -33710131 -745802957
        -72818293 -16066049 2145385359 3 4 1624 -2045201999 -237399211
        -912467681 -102917293 -1148704513 -1146613615 -1400841989
        -72760757 5 6 24 774021350 -1 -268439553 -65553 -570425345 -1 -2
        1073741822 0 -1 2297 -749719043 -143125995 1364547039 -551976939
        -1719088965 -108361567 -1988063749 -71595893 -2 -3 5800
        -16777238 -134217729 -4098 -285212673 -131 -134217729 -8331
        905969654 -4 -5 5812 -788155429 -1052671727 1077936256
        -582942719 1350616249 -2080276472 -2145386482 -116940793 -6 -7
        131 -2143240182 -2147483646 8192 536903938 -2136997823 0 128
        1644167172</internalNodes>
      <leafValues>
        -9.6523010730743408e-01 8.4790176153182983e-01
        -8.7645113468170166e-01 9.4866269826889038e-01
        -9.8662555217742920e-01 9.0590727329254150e-01 -1.
        9.7752481698989868e-01</leafValues></_></weakClassifiers></stage3>
</opencv_storage>
