<?xml version="1.0"?>
<opencv_storage>
<stage4>
  <maxWeakCount>2</maxWeakCount>
  <stageThreshold>-6.7942417226731777e-03</stageThreshold>
  <weakClassifiers>
    <_>
      <internalNodes>
        1 2 9961 -209 -16777297 -251625568 -1 -249 -805306369 -7602624
        -1 3 4 9971 -109053057 -137632369 -805191536 -136592086
        -661932193 -1848688630 -343418398 -3150849 5 6 6998 -33751044
        2096955388 -268500996 -16842756 -16973828 -51445764 -268632836
        1593081852 0 -1 9950 -212863489 -786697846 -1736097659
        -109059377 -743714753 -1023180662 -242759198 -263461 -2 -3 28
        -1393664116 -385 33488878 -2130705920 -1593835517 -2146959360
        -8372214 1610579959 -4 -5 3365 1090581753 -1877999339 536952835
        1095434281 139 1073741827 411074921 -1115584374 -6 -7 347
        4325570 -2147450880 16384 2 1090519040 512 1073807361
        -1073737728</internalNodes>
      <leafValues>
        -9.3119812011718750e-01 2.8000000119209290e-01
        -9.3750000000000000e-01 9.8039215803146362e-01 -1.
        7.6470589637756348e-01 -7.0588237047195435e-01
        9.8541921377182007e-01</leafValues></_>
    <_>
      <internalNodes>
        1 2 6533 -321372160 -2374499 -654108537 -38892727 -1031220229
        -74903409 -888634882 -325326369 3 4 481 -849614353 -520900350
        -788527080 -187735137 -204308065 -1291812725 -494698097
        -36700533 5 6 187 -1001996246 -2146934272 1073790976 1208000642
        1073857153 131 -973045619 1317531843 0 -1 2026 -44971009
        -69254885 -1795155495 -111306605 -544685393 -73676393 -394208597
        -3150149 -2 -3 9970 -2147450688 268500992 2 -1878982656
        536911880 17827840 -2147444735 -2147221494 -4 -5 1375 303812863
        1962935045 1073747979 -804536295 1358962699 -939524088
        -2147483510 -343170357 -6 -7 9966 -1069313272 -2146959360
        -939458560 69891 -2113929216 262144 -1065344768 1780697156</internalNodes>
      <leafValues>
        -9.8519068956375122e-01 7.6709872484207153e-01 -1.
        8.8233870267868042e-01 -1. 1. -9.1496515274047852e-01
        9.2440384626388550e-01</leafValues></_></weakClassifiers></stage4>
</opencv_storage>
