<?xml version="1.0"?>
<opencv_storage>
<stage1>
  <maxWeakCount>1</maxWeakCount>
  <stageThreshold>1.</stageThreshold>
  <weakClassifiers>
    <_>
      <internalNodes>
        1 2 19795 811102717 968933465 16860127 1024725595 -1467961107
        -1198972800 402996152 136972856 3 4 8227 -644836897 -717024943
        -1853684321 -1080458857 310430911 -1182170485 -1593144949
        -6709213 5 6 94 -532654074 -234815152 8963088 1573913605
        -2004589416 958464416 -503316309 65568 7 8 24166 -83626497
        -545134181 -720252771 -539656171 -209591365 -1987460983
        -83834465 -2106961 0 -1 380 16990212 269582337 65536 268500992
        128 524288 16898 -2147483646 -2 -3 3 -674770745 -519503744 3
        1359249408 16810114 65536 1073848330 -108560213 -4 9 8487
        -1340817176 68157441 1157714114 -2080358399 8193 92307592
        1075841056 34281475 -5 -6 24 -71042049 -581345131 -2130688821
        -547934053 -718939173 -662470518 -1818404465 -17473 -7 -8 0 0 0
        0 1073741824 0 0 0 0 -9 10 22653 98432 1049090 65536 -2113896384
        65538 65544 196608 68247681 -10 11 17832 536887296 -805306368 0
        1073741824 -2147450876 0 32896 33554432 -11 12 10748 0 33554432
        0 327680 8 0 0 536870976 -12 -13 5 32768 0 0 0 0 0 0 0</internalNodes>
      <leafValues>
        -1. 1. -1. 1. -1. -1. 1. -1. 1. -1. -1. -1. -1. 1.</leafValues></_></weakClassifiers></stage1>
</opencv_storage>
