<?xml version="1.0"?>
<opencv_storage>
<stage5>
  <maxWeakCount>2</maxWeakCount>
  <stageThreshold>-7.0195771753787994e-02</stageThreshold>
  <weakClassifiers>
    <_>
      <internalNodes>
        1 2 792 -249627137 -673738531 1310311263 -52379431 -742290513
        -89421669 -108988001 2145307019 3 4 8724 -37226497 -843677353
        1375798275 -1362627705 -795780413 -1967087206 -1039933086
        -153097237 5 6 6 -1360072978 -1360068626 -65553 -1359040514 -33
        -1474264959 -32255 -1006714913 0 -1 5999 -788136481 -552582884
        -251650593 -551792427 -1433749253 -1103396637 -1450456901
        -2369365 -2 -3 913 -2142208000 286261249 268435528 587202560
        -2147483447 -1996488704 152 58720296 -4 -5 881 -184356737
        -519897088 276829209 -788463613 -671022973 -1879015232
        -2147188600 -375682877 -6 -7 796 983020 -16973826 -1114242
        -1114114 327664 -2146435064 -2012741492 1047977984</internalNodes>
      <leafValues>
        -9.4308942556381226e-01 3.9130434393882751e-01 -1.
        8.1818181276321411e-01 -9.7484278678894043e-01 1.
        -7.3584908246994019e-01 9.5307260751724243e-01</leafValues></_>
    <_>
      <internalNodes>
        1 2 9903 -142607616 -1060646549 -1006256085 -579472689
        -262741418 -997660533 -120602358 1809836687 3 4 8497 -74450945
        -19918395 939856311 -553320445 -1702172007 -222134101
        -1499878705 -1393923 5 6 300 -2006267954 -2140913022 -2113928188
        -2143117278 -939360246 -1744666488 -2147319733 -353465717 0 -1
        8740 -70003713 -44191038 52547807 -278931557 -1073561377
        -620134241 -45436257 -5245733 -2 -3 2346 -939177727 1107822592 5
        -2130706430 20608 -2113929214 16451 1108054018 -4 -5 6486
        -771649387 -784269231 -2080370659 -654262125 -2147483431
        -1988100086 -2146909493 -1450997629 -6 -7 6508 272 -1459617752
        268763152 301991424 -1073184632 -2130706432 561672 696291336</internalNodes>
      <leafValues>
        -9.8131275177001953e-01 2.6284146308898926e-01 -1.
        8.7289363145828247e-01 -9.8170965909957886e-01 1.
        -9.0213942527770996e-01 9.1508072614669800e-01</leafValues></_></weakClassifiers></stage5>
</opencv_storage>
