<?xml version="1.0"?>
<opencv_storage>
<stage6>
  <maxWeakCount>1</maxWeakCount>
  <stageThreshold>9.8966407775878906e-01</stageThreshold>
  <weakClassifiers>
    <_>
      <internalNodes>
        1 2 77 -285283329 -509450487 -535641981 -347107186 -357574481
        -788344819 -138026277 2147483639 3 4 89 -545272577 -40118785
        -1010576421 -39071525 -224742753 -1691635365 -664013109 -1049665
        5 6 7136 419550163 -803602432 536870993 -784334848 -2147482903
        -1592721280 1375783066 1804245122 0 -1 814 -41960449 -10774123
        -753280545 -6563305 -87048257 -357981544 -1030763521 -1048597 -2
        -3 4 -2147426174 0 1088 1073774592 2 0 128 1073938434 -4 -5 11
        1376903639 -733671340 270565889 1359053058 835712 277348512
        -2145316686 -393746045 -6 -7 7330 8404992 -2113929088 1
        285278208 128 -2147483648 268439680 -1333788671</internalNodes>
      <leafValues>
        -9.9267399311065674e-01 1. -1. 1. -1. 1. -1.
        9.8966407775878906e-01</leafValues></_></weakClassifiers></stage6>
</opencv_storage>
