<?xml version="1.0"?>
<opencv_storage>
<stage9>
  <maxWeakCount>2</maxWeakCount>
  <stageThreshold>-1.2648417055606842e-01</stageThreshold>
  <weakClassifiers>
    <_>
      <internalNodes>
        1 2 6996 -1759969283 -1076571651 -1458564673 -48622703
        -913666068 -1078420980 -1416966152 2146229129 3 4 4296 487969277
        -604043175 1225872309 -46333859 1342802161 -1156808533
        -1432953940 -2971334 5 6 9515 -268435680 -268435585 -268439892
        -16385 2147434340 -1 2113879301 -832569345 0 -1 7183 -2100769
        -653301109 1195458899 -208686169 1355467414 -1471447031
        -921848697 -4177 -2 -3 2733 -50177 -83886081 -1 -150994977
        -33003 -8912897 -1073741759 -671825985 -4 -5 4273 -1052651123
        -1325400063 1073742235 2033012795 -804847447 1375928322
        -2147483504 -149165941 -6 -7 658 -285298962 -16994306 -285298962
        34603024 -2147450366 -2013265920 -4087 1946042367</internalNodes>
      <leafValues>
        -9.4690263271331787e-01 1. -7.8666669130325317e-01
        8.8732391595840454e-01 -8.9583331346511841e-01
        7.8947371244430542e-01 -7.4074071645736694e-01
        9.1836732625961304e-01</leafValues></_>
    <_>
      <internalNodes>
        1 2 3732 -1867295371 -268435457 -65 -1 -129 -1 -16777217
        -1073872905 3 4 1294 -201851265 -251538573 -763231458 -104631159
        -1483744531 -69725301 -712516995 -67110145 0 5 481 -501758334
        -1073709056 49194 1279287296 34119680 -939524088 -801046518
        1944314374 -1 -2 8402 -20448393 1037940510 -1734405921
        -425748526 -902832005 -384711501 -95950730 -478413181 -3 -4 7678
        -1107300361 -1360003073 -268767442 -353435906 2147450869
        -134217729 -137 -18415618 -5 -6 4894 -4702220 -1078132740 -65554
        -1074233474 1873838068 2147287038 -196620 2133884788</internalNodes>
      <leafValues>
        -1. -9.1595786809921265e-01 -7.7789123170077801e-03
        -7.1649557352066040e-01 9.8279231786727905e-01
        -8.1482076644897461e-01 9.2708885669708252e-01</leafValues></_></weakClassifiers></stage9>
</opencv_storage>
