<?xml version="1.0"?>
<opencv_storage>
<stage4>
  <maxWeakCount>1</maxWeakCount>
  <stageThreshold>1.</stageThreshold>
  <weakClassifiers>
    <_>
      <internalNodes>
        1 2 17815 486702589 2136410179 -1291330785 521411295 -224132427
        -1148705143 446261501 -1353840272 3 4 7950 -1849508619
        -1078885951 -2129575465 -40435456 889206267 -1162313512
        -1920984897 -1968529995 5 6 1097 -2125629078 16859264 25380114
        550518785 -1996414960 1073762307 -2147333880 429019720 7 8 4328
        -740827169 -772700777 -663711333 -576773217 -243140433
        -1743867519 -306713937 -68166913 0 9 624 1209095235 1342243200
        65793 -1878982528 -2147475327 -1073608576 -2147352040 636355212
        -1 -2 2 -1055403081 1095303171 4352 -1040055806 -2147483630
        -1577058304 -2146827221 -343680885 -3 10 557 167821572
        1375830272 16850944 1249904653 1108385795 302120960 524312
        352976901 11 -4 16160 -80086529 -103168953 -768870129 -686299893
        -451609877 -172609493 -1089612369 -71307313 -5 -6 0 16 0 0 0 0 0
        0 0 -7 -8 11 82176 0 128 0 0 0 2 69634 -9 12 22297 134219792
        -2130706301 32768 0 655752 133136 34091272 520 -10 -11 660
        -45091841 -640194209 1761677467 -182499237 -477376593 -75314993
        -1315710325 -69207057 13 14 23959 8256 8192 16 40962 -2147483648
        0 36 553648128 -12 -13 2 50331651 285212672 0 285212672 0 0 0
        -1073709056 -14 -15 2252 16384 0 0 0 -2147483648 0 524288
        268435456</internalNodes>
      <leafValues>
        -1. -1. 1. -1. 1. -1. 1. -1. 1. -1. -1. 1. -1. 1. -1. 1.</leafValues></_></weakClassifiers></stage4>
</opencv_storage>
