<?xml version="1.0"?>
<opencv_storage>
<stage9>
  <maxWeakCount>1</maxWeakCount>
  <stageThreshold>1.</stageThreshold>
  <weakClassifiers>
    <_>
      <internalNodes>
        1 2 24 641265472 586634224 -11124929 -620835680 1926199959
        2143088363 2045767153 1190155602 3 4 2142 -778044449 -1074022629
        -1203656673 -16039891 1359446703 -191133551 -73008389 -85003538
        5 6 13428 680536100 -1072594463 -1811852934 503615617 -650081806
        -1693204247 1630125051 539015960 0 -1 3580 -116288265 -552269800
        1359216767 -585826287 -1610577729 -1702821664 -1734335765
        -7765825 -2 -3 11 268435464 268435456 67108864 4096 0 0 4227200
        17301504 -4 -5 7 -182472489 273252608 -1056824688 -2127845757
        16892099 -1858076640 -796372854 -36977781 -6 7 18012 1188101
        1215484337 268554595 1075347474 -1535074271 2177 1319116832
        954233732 -7 8 3 134359076 833 605061452 -1027010046 8449
        -1568598016 -1995962304 8405536 -8 9 18685 268567253 262336
        65536 1 540992 1073774592 -2147481080 536871552 -9 10 25300
        151007232 33554432 0 17043456 -2147467248 16777217 64 536875016
        -10 11 6391 4100 33619968 0 16777217 -2147481592 1024 0 0 -11
        -12 1150 -1073741824 0 0 0 64 0 32 0</internalNodes>
      <leafValues>
        -1. 1. -1. 1. -1. 1. -1. -1. -1. -1. -1. -1. 1.</leafValues></_></weakClassifiers></stage9>
</opencv_storage>
