<?xml version="1.0"?>
<opencv_storage>
<stage8>
  <maxWeakCount>1</maxWeakCount>
  <stageThreshold>1.</stageThreshold>
  <weakClassifiers>
    <_>
      <internalNodes>
        1 2 18820 -1610476688 967873813 1363202517 -1076096933
        -1668609027 -69105655 -813107299 -1696838880 3 4 22383 -45089833
        -207937089 331370767 -1690044165 -243156581 -1744813440
        -1053984810 -299107433 0 5 72 -1073445790 -867155686 939612298
        1431404618 -654016230 -1300119540 -803176144 822104066 6 -1
        13409 -245368321 -174340527 491069837 -15870821 -184292929
        -108419063 -292841489 -72372817 7 8 12966 539169157 -1073381119
        0 -2147450867 537002050 33587200 -2013249404 -58670974 -2 9
        26611 1694598082 67178625 1090521352 -939196160 -1073176560
        402653314 268444736 1073849858 -3 -4 6 -537139233 -661797941
        -1055719397 -74192497 -1052589873 -1744797290 -486030613
        -269485121 -5 -6 1 -750696381 -1861214207 65 -1006567421 106497
        1073774722 536969354 -401981429 -7 -8 4 0 268435457 0 0 0 0 2 0
        -9 10 22730 -2138996480 30425094 16778240 -2034237440 131073
        1610612736 1207993024 201326594 11 12 27003 475394 -2147483646 0
        16 33817088 8388608 553680930 8421890 -10 -11 1 -2147287038
        268435456 0 1342570514 144 0 536903689 -1073545213 -12 13 247
        1073741824 16384 0 4194324 512 0 0 16779266 -13 -14 3 0 4096
        8192 0 0 0 0 0</internalNodes>
      <leafValues>
        -1. 1. -1. -1. 1. -1. 1. -1. 1. -1. -1. 1. -1. -1. 1.</leafValues></_></weakClassifiers></stage8>
</opencv_storage>
