<?xml version="1.0"?>
<opencv_storage>
<stage6>
  <maxWeakCount>2</maxWeakCount>
  <stageThreshold>-1.4584997296333313e-01</stageThreshold>
  <weakClassifiers>
    <_>
      <internalNodes>
        1 2 9969 -10487836 -586419965 -918433392 -490500043 -800087640
        -1459124154 -236216128 2143287247 3 4 8421 -245899297 -586559741
        -1073675786 -310913470 -752147993 -127794678 -557086549 -2104433
        5 6 1 -1901154322 -273940481 -16777217 -511377408 -4 -1 -1
        2065426443 0 -1 4227 -78512641 -140929897 -2130631369 -67398331
        -215756289 -323452528 -1618354689 -2372689 -2 -3 3329 65809
        -1811873791 17 -754974459 -2130638812 -2130706432 50333700
        268592136 -4 -5 7618 -1048322661 1493303360 1090576391
        -447741952 -2010906453 -310378496 -2143254397 -1333067621 -6 -7
        9929 -1065025280 -1048657 -16480 -130 -58332 2097147 -1075765216
        -1307574480</internalNodes>
      <leafValues>
        -9.4190871715545654e-01 5.0000000000000000e-01 -1.
        8.0952382087707520e-01 -9.3939393758773804e-01
        8.9473682641983032e-01 -8.1481480598449707e-01
        9.3186813592910767e-01</leafValues></_>
    <_>
      <internalNodes>
        1 2 8199 1402926590 -1655168752 285311324 -5471844 -1409242116
        -40369974 -1978578216 2147101605 3 4 3228 -67635233 -611335865
        361340353 -168836693 -880235865 -209682298 -1190556705
        -268440197 5 6 7424 570429952 805421211 286331001 -654241408
        -1878468439 -1308622588 -1996444981 2089853569 0 -1 4964
        -10487307 -741013309 -1657335329 -175830627 -1910078723
        -108756830 -1734223718 -2176873 -2 -3 8696 114722 -1055899648
        -2147483648 268438528 128 -1073741824 32768 1611137024 -4 -5 194
        -796403339 1359676515 49153 1434525802 -2133475223 -1073741824
        -2146922359 -1287142673 -6 -7 625 -2038300542 -2147483382
        -2147483580 -2013265912 268502560 -1610579968 -1878491136
        1535877250</internalNodes>
      <leafValues>
        -9.5537376403808594e-01 2.7311298251152039e-01 -1.
        9.7498315572738647e-01 -1. 1. -9.7388893365859985e-01
        8.9919829368591309e-01</leafValues></_></weakClassifiers></stage6>
</opencv_storage>
