<?xml version="1.0"?>
<opencv_storage>
<stage8>
  <maxWeakCount>2</maxWeakCount>
  <stageThreshold>-1.0310912132263184e-01</stageThreshold>
  <weakClassifiers>
    <_>
      <internalNodes>
        1 2 5508 -1753212651 -551824225 -585772705 -170978855 -82583557
        -270823256 -796278273 2146429835 3 4 8388 1275066303 -437877933
        1866584411 -602750743 -230321701 -907444086 -391794061 -17826849
        5 6 75 -1030830386 -286331314 -4369 -1899311516 8470667 -524289
        -3 -134762642 0 -1 9575 -178259209 -212761649 -750534177
        -38037429 -805246801 -202858477 -99356005 -353370993 -2 -3 5914
        16777415 17825797 67110913 -2143285248 8421504 0 0 -464303975 -4
        -5 2097 -748453541 -1056931584 -2113928959 830820369 -1872754102
        805478409 -1056538357 -276068341 -6 -7 9921 -2147398912 -32622
        29 65537 4096 65570 1090519040 -2137321468</internalNodes>
      <leafValues>
        -9.6193265914916992e-01 1.4285714924335480e-01
        -9.5744681358337402e-01 8.6206895112991333e-01
        -9.0960454940795898e-01 7.3333334922790527e-01
        -6.6666668653488159e-01 9.1814160346984863e-01</leafValues></_>
    <_>
      <internalNodes>
        1 2 8 -1462835204 -415559599 -146776641 -537830991 -658130465
        -68630398 -654120001 1844444107 3 4 7713 -376965129 -538727905
        -863645409 -1505427451 -346427241 -89956200 -71052318 -69489985
        5 6 792 -364734982 -795753822 16810304 -930561920 -1610317130
        -1912406016 -1040154422 1809770955 0 -1 8566 -113770529
        -144108765 -133066949 -36599339 -166661377 -394051505 -74524161
        -2305 -2 -3 7880 -2147467239 -2146418558 268435473 0 33554432 0
        0 -1992261632 -4 -5 6747 1271133959 -528415741 50855937 37831045
        -2118008191 -2113927037 -1610575229 -94385181 -6 -7 7408 8388612
        -1870659511 132177 -1258291200 -1073053631 -1568669695
        1107430074 704958601</internalNodes>
      <leafValues>
        -9.7057038545608521e-01 7.3039561510086060e-01 -1.
        9.4977033138275146e-01 -9.9079561233520508e-01
        6.6599231958389282e-01 -8.8869816064834595e-01
        8.5882353782653809e-01</leafValues></_></weakClassifiers></stage8>
</opencv_storage>
