<?xml version="1.0"?>
<opencv_storage>
<stage7>
  <maxWeakCount>1</maxWeakCount>
  <stageThreshold>1.</stageThreshold>
  <weakClassifiers>
    <_>
      <internalNodes>
        1 2 15669 435300767 391467728 -649600057 261456077 -99932107
        -104202145 -91526347 -1348850600 3 4 25998 -404754953
        -1210853071 1090603294 -648158518 -1995840037 -225832831
        -657728650 -4199461 5 6 7252 1629162000 71893009 120082
        673562707 -392792063 973680769 -511704528 1359873026 7 8 19216
        -586436131 -585820901 -687532705 -41746401 -897015573 -74805117
        -914171505 -71575361 0 9 5937 -805302207 84410371 1 -2055208704
        35722 8388608 8423560 134385800 -1 -2 3 -921701377 -780091367
        -1064730536 1494221121 1619249282 -2147483648 -1832877415
        -244606441 -3 10 21889 -1048542644 -2139074560 1073741850
        -1601667066 10495025 1077936258 578879520 537331746 -4 -5 7
        -745538593 -519838953 269013121 -1308127077 -116661297
        -805070464 -519052341 -205520929 -6 -7 0 0 0 0 16777216 0 0 0 0
        -8 -9 0 0 0 0 0 0 0 0 536870912 -10 11 1096 21107728 286326784
        8224 4198403 12582916 67108960 536904132 268511300 -11 12 17942
        71319568 1073741826 4 -2145255424 33554472 -2080374784 384
        786944 -12 13 2317 32 1048576 16842752 0 536870928 33554432 32
        576 -13 -14 22 128 0 0 0 0 0 2048 0</internalNodes>
      <leafValues>
        -1. -1. 1. -1. -1. 1. -1. 1. -1. 1. -1. -1. -1. -1. 1.</leafValues></_></weakClassifiers></stage7>
</opencv_storage>
