<?xml version="1.0"?>
<opencv_storage>
<stage6>
  <maxWeakCount>1</maxWeakCount>
  <stageThreshold>1.</stageThreshold>
  <weakClassifiers>
    <_>
      <internalNodes>
        1 2 26992 -270537745 -1428254840 -1827531772 -984878328
        -1413123616 558452933 847500033 -503317145 3 4 8598 -2133005
        -886185555 -1861124649 483898331 -80758301 -103620469 -106431616
        -291644545 5 6 492 -1239252798 1376829505 537182532 -369032952
        1476462084 68298880 -745995775 277960768 7 8 23661 -78120993
        -654064345 -1325150129 -782794289 -776778373 -652279142
        -215498273 -1049633 0 9 20408 1342390607 -1073577984 293601296
        -2063515647 -2146926558 201478144 536938624 -1039530998 -1 -2 16
        -167259745 -367992576 8454208 -737837055 37847055 -2138947550
        1074249729 -208435070 -3 10 1763 67796994 -2138554303 1073758475
        -2109722624 1207976185 -2147483648 12612232 17408 -4 -5 225
        2136472575 -212878633 -2021228373 -102764065 -36710465
        -1188396661 -888546577 -67108949 -6 -7 1 16385 17825792 0 0
        262145 0 0 1082163200 -8 -9 48 32768 536870912 16385 1090551808
        16387 0 1 4194944 -10 11 4327 8194 -2079260606 66 1073742082
        589825 1073741824 134250513 21110784 -11 12 6509 0 65537 20
        268435456 0 134217730 2049 16 -12 -13 3552 -2147483648 0 256 0 0
        0 0 128</internalNodes>
      <leafValues>
        -1. -1. 1. -1. -1. 1. -1. 1. -1. 1. -1. -1. -1. 1.</leafValues></_></weakClassifiers></stage6>
</opencv_storage>
