<?xml version="1.0"?>
<opencv_storage>
<stage1>
  <maxWeakCount>2</maxWeakCount>
  <stageThreshold>5.9650945477187634e-03</stageThreshold>
  <weakClassifiers>
    <_>
      <internalNodes>
        1 2 3 -963714354 -535920121 1073746048 -930938230 -1060125797
        -2112847102 -803089205 2145381343 3 4 1160 -245891105 -14687933
        -1072578517 1404559623 -1325155925 -649559421 -75236725 -1318177
        5 6 6532 1013974016 -33554433 -8405025 -33554436 -1 -1 -491009
        2147483647 0 -1 3916 -250741763 -183037807 285331871 -581615109
        -754394949 -545259336 -922579989 -7626533 -2 -3 0 32768 0 0 0 0
        0 32 0 -4 -5 8865 -775163425 -112164608 32833 -788463615
        83984521 -1860108159 1207959683 -95698301 -6 -7 441 1073741952
        16384 0 1073905664 0 65536 32768 1073938437</internalNodes>
      <leafValues>
        -9.7572815418243408e-01 8.1818181276321411e-01 -1. 1.
        -9.6129029989242554e-01 1. -9.1666668653488159e-01
        9.8324608802795410e-01</leafValues></_>
    <_>
      <internalNodes>
        1 2 9904 -540544256 -180117247 -2147336190 -251411805 -721057019
        -2130378752 -784112252 2130698927 3 4 9369 -204474369 -539242165
        1359020063 -778321021 -888500789 -1198948158 -771118181
        -67374129 5 6 524 -1073291122 -1073692414 0 33554434 245888 4098
        131586 1900401611 0 -1 9973 -673711169 -784088941 537141762
        -788414321 -234639222 -1995907071 -234118011 -5254193 -2 -3 1
        262208 0 65536 0 32770 0 0 0 -4 -5 79 -1051471401 -2130590463 8
        -2063581182 -2147024894 -2147418110 -503152638 -729054966 -6 -7
        824 64 1342177280 1 65538 32770 -2147450880 134217867 536870914</internalNodes>
      <leafValues>
        -9.7728097438812256e-01 1.5533690154552460e-01 -1. 1. -1.
        8.3218115568161011e-01 -8.4147220849990845e-01
        9.8571211099624634e-01</leafValues></_></weakClassifiers></stage1>
</opencv_storage>
